~o
<STREAMINFO> 1 13
~h "A"
<BEGINHMM>
<NUMSTATES> 3
<STATE> 2
<MEAN> 13
 -1.094023e+000 1.212692e-001 -1.215764e+000 -4.443741e-001 -4.055181e-001 -1.995052e-001 -2.414384e-001 -8.564227e-002 -3.237604e-001 -1.939014e-001 -1.262172e-001 -7.332111e-002 -7.425788e-002
<VARIANCE> 13
 1.648906e+000 2.908682e-001 1.361826e-001 1.039792e-001 8.956847e-002 5.194307e-002 4.582583e-002 3.963429e-002 4.488517e-002 3.957836e-002 2.450614e-002 2.040547e-002 1.854563e-002
<GCONST> -1.070245e+001
<TRANSP> 3
 0.000000e+000 1.000000e+000 0.000000e+000
 0.000000e+000 9.318159e-001 6.818415e-002
 0.000000e+000 0.000000e+000 0.000000e+000
<ENDHMM>
~h "C"
<BEGINHMM>
<NUMSTATES> 3
<STATE> 2
<MEAN> 13
 -4.569449e+000 -1.047775e+000 5.080133e-001 -1.900078e-001 -3.234368e-001 -3.120412e-002 -1.331085e-001 1.904047e-002 -4.941676e-002 5.775829e-002 -4.860409e-002 2.552243e-002 -2.155774e-002
<VARIANCE> 13
 2.054326e+000 9.279552e-001 1.926017e-001 1.191909e-001 1.035162e-001 5.143260e-002 4.119674e-002 2.859054e-002 2.561680e-002 1.710921e-002 1.582215e-002 1.220765e-002 1.045131e-002
<GCONST> -1.206188e+001
<TRANSP> 3
 0.000000e+000 1.000000e+000 0.000000e+000
 0.000000e+000 9.098859e-001 9.011409e-002
 0.000000e+000 0.000000e+000 0.000000e+000
<ENDHMM>
~h "D"
<BEGINHMM>
<NUMSTATES> 3
<STATE> 2
<MEAN> 13
 -3.514030e+000 4.400035e-001 2.989793e-001 -2.008571e-001 -7.656453e-001 -4.483158e-001 -3.884313e-001 -2.164747e-001 -2.131712e-001 -9.538110e-002 -1.471305e-001 -1.023152e-001 -1.295518e-001
<VARIANCE> 13
 2.745685e+000 2.369709e-001 2.393414e-001 1.161461e-001 1.245629e-001 6.022992e-002 4.469401e-002 4.046874e-002 2.981181e-002 2.272064e-002 2.134475e-002 2.079084e-002 2.019698e-002
<GCONST> -1.024757e+001
<TRANSP> 3
 0.000000e+000 1.000000e+000 0.000000e+000
 0.000000e+000 8.168413e-001 1.831587e-001
 0.000000e+000 0.000000e+000 0.000000e+000
<ENDHMM>
~h "E"
<BEGINHMM>
<NUMSTATES> 3
<STATE> 2
<MEAN> 13
 -1.418321e+000 -1.186388e-003 -5.615225e-001 -4.033312e-001 -9.020294e-001 -2.874620e-001 -1.344283e-001 -1.095591e-001 -3.197509e-001 -7.524601e-002 -2.038226e-001 -1.124618e-001 -9.426977e-002
<VARIANCE> 13
 1.709244e+000 2.823696e-001 1.706203e-001 9.103047e-002 8.694831e-002 9.179620e-002 4.333550e-002 4.550264e-002 3.422292e-002 2.547241e-002 3.010472e-002 2.476732e-002 2.667873e-002
<GCONST> -9.930566e+000
<TRANSP> 3
 0.000000e+000 1.000000e+000 0.000000e+000
 0.000000e+000 9.082412e-001 9.175890e-002
 0.000000e+000 0.000000e+000 0.000000e+000
<ENDHMM>
~h "I"
<BEGINHMM>
<NUMSTATES> 3
<STATE> 2
<MEAN> 13
 -3.789697e+000 1.946408e-001 8.052344e-001 -2.306432e-001 -7.486300e-001 -2.766423e-001 -5.285887e-001 -2.387301e-001 -1.988745e-001 -1.254944e-001 -1.187602e-001 -6.864861e-002 -8.329416e-002
<VARIANCE> 13
 1.753044e+000 3.945575e-001 1.961064e-001 1.432399e-001 1.065914e-001 4.309130e-002 4.559805e-002 4.796551e-002 3.203059e-002 2.520848e-002 2.390652e-002 1.998487e-002 2.156308e-002
<GCONST> -1.016171e+001
<TRANSP> 3
 0.000000e+000 1.000000e+000 0.000000e+000
 0.000000e+000 8.957494e-001 1.042506e-001
 0.000000e+000 0.000000e+000 0.000000e+000
<ENDHMM>
~h "J"
<BEGINHMM>
<NUMSTATES> 3
<STATE> 2
<MEAN> 13
 -3.254530e+000 5.794759e-001 3.636773e-001 -4.519328e-001 -7.234260e-001 -2.686170e-001 -4.426603e-001 -2.490315e-001 -3.096153e-001 -1.933712e-001 -2.392701e-001 -1.614552e-001 -1.537539e-001
<VARIANCE> 13
 1.549631e+000 2.973788e-001 2.120676e-001 1.200310e-001 8.468740e-002 5.214002e-002 5.031941e-002 4.441214e-002 3.444573e-002 2.666496e-002 1.657993e-002 1.808177e-002 2.695809e-002
<GCONST> -1.079806e+001
<TRANSP> 3
 0.000000e+000 1.000000e+000 0.000000e+000
 0.000000e+000 8.798994e-001 1.201006e-001
 0.000000e+000 0.000000e+000 0.000000e+000
<ENDHMM>
~h "N"
<BEGINHMM>
<NUMSTATES> 3
<STATE> 2
<MEAN> 13
 -3.033929e+000 6.967303e-001 -3.733868e-001 -4.346419e-001 -5.138359e-001 -1.694257e-001 -4.416597e-001 -1.910727e-001 -2.072996e-001 -2.775010e-001 -1.588202e-001 -1.301010e-001 -1.029592e-001
<VARIANCE> 13
 2.494393e+000 2.210809e-001 4.385008e-001 1.335321e-001 1.061681e-001 5.490143e-002 5.458619e-002 4.215406e-002 4.830828e-002 2.881152e-002 2.280696e-002 2.039127e-002 1.718000e-002
<GCONST> -9.074412e+000
<TRANSP> 3
 0.000000e+000 1.000000e+000 0.000000e+000
 0.000000e+000 8.893633e-001 1.106367e-001
 0.000000e+000 0.000000e+000 0.000000e+000
<ENDHMM>
~h "Q"
<BEGINHMM>
<NUMSTATES> 3
<STATE> 2
<MEAN> 13
 -4.149575e+000 -1.165857e+000 2.791398e-001 -2.284679e-001 -3.338956e-001 -5.725231e-002 -4.874078e-002 -1.482734e-002 -4.280105e-002 7.792579e-002 -6.121664e-002 1.680347e-002 -1.348671e-002
<VARIANCE> 13
 1.592107e+000 4.543454e-001 2.193832e-001 1.014339e-001 8.960877e-002 5.170409e-002 3.721137e-002 2.989277e-002 2.459410e-002 1.734990e-002 1.800936e-002 1.387675e-002 1.114125e-002
<GCONST> -1.296344e+001
<TRANSP> 3
 0.000000e+000 1.000000e+000 0.000000e+000
 0.000000e+000 8.723305e-001 1.276694e-001
 0.000000e+000 0.000000e+000 0.000000e+000
<ENDHMM>
~h "R"
<BEGINHMM>
<NUMSTATES> 3
<STATE> 2
<MEAN> 13
 -3.925978e+000 -6.349663e-001 2.798390e-001 -2.414078e-001 -3.758256e-001 -2.258920e-001 -1.134976e-001 -4.414016e-002 -1.508527e-001 4.705745e-002 -9.153199e-002 -1.965561e-002 -5.153970e-002
<VARIANCE> 13
 1.923742e+000 6.735112e-001 2.885402e-001 1.140018e-001 1.162593e-001 7.822832e-002 4.998566e-002 3.441724e-002 3.275421e-002 2.322345e-002 2.623821e-002 1.553517e-002 1.490419e-002
<GCONST> -9.520927e+000
<TRANSP> 3
 0.000000e+000 1.000000e+000 0.000000e+000
 0.000000e+000 8.436897e-001 1.563103e-001
 0.000000e+000 0.000000e+000 0.000000e+000
<ENDHMM>
~h "S"
<BEGINHMM>
<NUMSTATES> 3
<STATE> 2
<MEAN> 13
 -3.915661e+000 -1.516012e+000 5.455642e-001 -1.214791e-001 -4.571593e-001 1.481667e-002 -1.686612e-001 -9.815586e-003 -8.023992e-002 4.591400e-002 -6.296863e-002 1.412285e-002 -3.085721e-002
<VARIANCE> 13
 2.257115e+000 5.731201e-001 2.383383e-001 1.297743e-001 1.136333e-001 5.387302e-002 4.355848e-002 2.911679e-002 2.858987e-002 1.687262e-002 1.721613e-002 1.260461e-002 1.097969e-002
<GCONST> -1.167626e+001
<TRANSP> 3
 0.000000e+000 1.000000e+000 0.000000e+000
 0.000000e+000 9.066734e-001 9.332662e-002
 0.000000e+000 0.000000e+000 0.000000e+000
<ENDHMM>
~h "T"
<BEGINHMM>
<NUMSTATES> 3
<STATE> 2
<MEAN> 13
 -4.935481e+000 -3.580287e-002 4.084922e-001 -1.639582e-001 -4.161704e-001 -1.950338e-001 -1.763413e-001 -3.571434e-002 -5.046660e-002 3.413147e-002 -3.603129e-002 7.320440e-003 -2.758293e-002
<VARIANCE> 13
 2.026159e+000 5.364975e-001 2.319833e-001 9.988848e-002 1.500901e-001 6.137551e-002 6.520984e-002 3.534607e-002 2.478514e-002 1.946348e-002 1.727433e-002 1.400670e-002 1.260672e-002
<GCONST> -1.088592e+001
<TRANSP> 3
 0.000000e+000 1.000000e+000 0.000000e+000
 0.000000e+000 8.699152e-001 1.300848e-001
 0.000000e+000 0.000000e+000 0.000000e+000
<ENDHMM>
~h "U"
<BEGINHMM>
<NUMSTATES> 3
<STATE> 2
<MEAN> 13
 -4.733606e+000 9.436200e-001 2.484547e-001 -3.886710e-001 -4.283313e-001 -2.938398e-001 -3.798878e-001 -2.379564e-001 -1.479101e-001 -5.235999e-002 -2.510856e-002 -3.509765e-002 -4.738702e-002
<VARIANCE> 13
 1.462306e+000 3.084195e-001 1.398237e-001 1.544145e-001 6.855982e-002 4.484166e-002 5.766293e-002 4.446032e-002 2.879977e-002 2.286379e-002 1.845450e-002 1.579668e-002 1.504856e-002
<GCONST> -1.215280e+001
<TRANSP> 3
 0.000000e+000 1.000000e+000 0.000000e+000
 0.000000e+000 8.988009e-001 1.011991e-001
 0.000000e+000 0.000000e+000 0.000000e+000
<ENDHMM>
~h "Z"
<BEGINHMM>
<NUMSTATES> 3
<STATE> 2
<MEAN> 13
 -2.269752e+000 -2.757792e-001 2.163388e-001 -3.383232e-001 -8.244606e-001 -3.545862e-001 -3.583612e-001 -1.468332e-001 -2.533766e-001 -4.282769e-002 -2.065092e-001 -1.360347e-001 -1.956584e-001
<VARIANCE> 13
 2.072523e+000 6.187969e-001 3.913278e-001 1.647653e-001 1.154504e-001 7.480595e-002 5.614183e-002 3.302447e-002 2.969644e-002 2.206438e-002 2.697396e-002 2.063833e-002 2.553541e-002
<GCONST> -8.134102e+000
<TRANSP> 3
 0.000000e+000 1.000000e+000 0.000000e+000
 0.000000e+000 8.824353e-001 1.175647e-001
 0.000000e+000 0.000000e+000 0.000000e+000
<ENDHMM>
~h "a"
<BEGINHMM>
<NUMSTATES> 3
<STATE> 2
<MEAN> 13
 -1.820163e+000 2.948045e-001 -9.102286e-001 -5.090310e-001 -4.833414e-001 -2.789246e-001 -2.483530e-001 -1.946086e-002 -2.488011e-001 -1.734584e-001 -1.326621e-001 -6.957074e-002 -6.207554e-002
<VARIANCE> 13
 2.533771e+000 3.355462e-001 2.346364e-001 1.186939e-001 9.580594e-002 6.385045e-002 5.294375e-002 4.059501e-002 5.438076e-002 3.317861e-002 2.332679e-002 1.959105e-002 1.796214e-002
<GCONST> -9.118008e+000
<TRANSP> 3
 0.000000e+000 1.000000e+000 0.000000e+000
 0.000000e+000 8.653237e-001 1.346763e-001
 0.000000e+000 0.000000e+000 0.000000e+000
<ENDHMM>
~h "b"
<BEGINHMM>
<NUMSTATES> 3
<STATE> 2
<MEAN> 13
 -4.697011e+000 9.275070e-001 2.530976e-001 -2.034013e-001 -3.989196e-001 -3.716635e-001 -3.960586e-001 -2.351693e-001 -1.682263e-001 -1.523539e-001 -1.327410e-001 -1.096142e-001 -9.667511e-002
<VARIANCE> 13
 1.705626e+000 1.683130e-001 2.010247e-001 1.286724e-001 7.330140e-002 4.344644e-002 4.632470e-002 4.237813e-002 3.089390e-002 2.301291e-002 1.898033e-002 1.653556e-002 1.538557e-002
<GCONST> -1.248283e+001
<TRANSP> 3
 0.000000e+000 1.000000e+000 0.000000e+000
 0.000000e+000 8.684710e-001 1.315290e-001
 0.000000e+000 0.000000e+000 0.000000e+000
<ENDHMM>
~h "c"
<BEGINHMM>
<NUMSTATES> 3
<STATE> 2
<MEAN> 13
 -5.279915e+000 -4.255689e-001 1.014309e-001 6.447210e-003 -1.991337e-001 -3.065264e-002 -2.073532e-004 2.680709e-002 -7.659973e-003 6.023550e-002 -1.628668e-002 2.305776e-002 -4.349280e-004
<VARIANCE> 13
 1.394853e+000 4.479985e-001 1.561623e-001 7.469445e-002 7.781108e-002 4.294028e-002 3.254863e-002 2.379356e-002 2.042358e-002 1.620168e-002 1.364610e-002 1.150101e-002 9.350106e-003
<GCONST> -1.533946e+001
<TRANSP> 3
 0.000000e+000 1.000000e+000 0.000000e+000
 0.000000e+000 9.134603e-001 8.653965e-002
 0.000000e+000 0.000000e+000 0.000000e+000
<ENDHMM>
~h "d"
<BEGINHMM>
<NUMSTATES> 3
<STATE> 2
<MEAN> 13
 -4.563904e+000 5.348193e-001 1.227118e-001 -1.359587e-001 -4.248778e-001 -3.376444e-001 -2.780581e-001 -6.454051e-002 -1.291549e-001 -6.435185e-002 -6.110417e-002 -4.542423e-002 -3.983906e-002
<VARIANCE> 13
 2.221229e+000 3.157541e-001 2.318344e-001 1.113486e-001 1.053719e-001 7.149200e-002 7.196871e-002 4.066646e-002 3.116177e-002 2.556127e-002 2.072250e-002 1.555050e-002 1.310893e-002
<GCONST> -1.035135e+001
<TRANSP> 3
 0.000000e+000 1.000000e+000 0.000000e+000
 0.000000e+000 8.186027e-001 1.813973e-001
 0.000000e+000 0.000000e+000 0.000000e+000
<ENDHMM>
~h "e"
<BEGINHMM>
<NUMSTATES> 3
<STATE> 2
<MEAN> 13
 -2.222402e+000 2.378982e-002 -2.539593e-001 -2.658292e-001 -8.996323e-001 -3.844337e-001 -1.965787e-001 -9.497587e-002 -2.472186e-001 -7.605027e-003 -1.566492e-001 -9.838298e-002 -6.438935e-002
<VARIANCE> 13
 2.396922e+000 4.011903e-001 2.194754e-001 1.055625e-001 1.050832e-001 8.603673e-002 4.823113e-002 3.524872e-002 2.982625e-002 2.667717e-002 3.527776e-002 2.159054e-002 2.063585e-002
<GCONST> -9.191801e+000
<TRANSP> 3
 0.000000e+000 1.000000e+000 0.000000e+000
 0.000000e+000 8.462981e-001 1.537019e-001
 0.000000e+000 0.000000e+000 0.000000e+000
<ENDHMM>
~h "f"
<BEGINHMM>
<NUMSTATES> 3
<STATE> 2
<MEAN> 13
 -5.159172e+000 -4.158979e-001 -4.059362e-003 1.029580e-001 -2.399764e-001 -3.490187e-002 -2.600918e-002 3.022114e-002 -3.293926e-002 4.686864e-002 -1.758671e-002 1.214984e-002 -8.223156e-003
<VARIANCE> 13
 1.612011e+000 3.885955e-001 1.741789e-001 7.204344e-002 9.517061e-002 4.508482e-002 3.369241e-002 2.470338e-002 2.202017e-002 1.594223e-002 1.394029e-002 1.029143e-002 9.061489e-003
<GCONST> -1.500380e+001
<TRANSP> 3
 0.000000e+000 1.000000e+000 0.000000e+000
 0.000000e+000 8.692953e-001 1.307047e-001
 0.000000e+000 0.000000e+000 0.000000e+000
<ENDHMM>
~h "g"
<BEGINHMM>
<NUMSTATES> 3
<STATE> 2
<MEAN> 13
 -4.620215e+000 2.176206e-001 2.548524e-002 5.743067e-003 -5.294865e-001 -2.460663e-001 -1.537719e-001 -7.780808e-002 -6.340705e-002 -5.169512e-003 -1.495881e-002 -2.134321e-002 -2.094997e-002
<VARIANCE> 13
 2.736778e+000 3.108923e-001 2.896512e-001 9.473752e-002 1.878746e-001 8.638846e-002 5.871149e-002 4.522177e-002 2.562456e-002 2.291266e-002 1.662442e-002 1.417250e-002 1.116277e-002
<GCONST> -1.020580e+001
<TRANSP> 3
 0.000000e+000 1.000000e+000 0.000000e+000
 0.000000e+000 8.546190e-001 1.453810e-001
 0.000000e+000 0.000000e+000 0.000000e+000
<ENDHMM>
~h "h"
<BEGINHMM>
<NUMSTATES> 3
<STATE> 2
<MEAN> 13
 -3.493950e+000 5.866360e-001 -1.910421e-001 -3.992332e-001 -4.080386e-001 -2.907883e-001 -3.690335e-001 -1.416143e-001 -1.773870e-001 -1.009281e-001 -1.273288e-001 -1.111680e-001 -1.204754e-001
<VARIANCE> 13
 1.737137e+000 5.792643e-001 2.883040e-001 1.883094e-001 1.051288e-001 5.603828e-002 5.331707e-002 5.212229e-002 3.686818e-002 2.649550e-002 2.502233e-002 1.720094e-002 1.765941e-002
<GCONST> -8.753167e+000
<TRANSP> 3
 0.000000e+000 1.000000e+000 0.000000e+000
 0.000000e+000 7.221929e-001 2.778071e-001
 0.000000e+000 0.000000e+000 0.000000e+000
<ENDHMM>
~h "i"
<BEGINHMM>
<NUMSTATES> 3
<STATE> 2
<MEAN> 13
 -2.993698e+000 1.139689e-001 3.071817e-001 -1.565105e-001 -9.768552e-001 -3.508139e-001 -3.879991e-001 -2.111618e-001 -1.575651e-001 -3.103991e-002 -1.161221e-001 -7.825491e-002 -8.260959e-002
<VARIANCE> 13
 2.556857e+000 3.157846e-001 2.023453e-001 1.227902e-001 1.245144e-001 6.496704e-002 4.565417e-002 3.943853e-002 2.516285e-002 2.198469e-002 2.568263e-002 1.849815e-002 2.222382e-002
<GCONST> -1.011187e+001
<TRANSP> 3
 0.000000e+000 1.000000e+000 0.000000e+000
 0.000000e+000 8.684643e-001 1.315357e-001
 0.000000e+000 0.000000e+000 0.000000e+000
<ENDHMM>
~h "j"
<BEGINHMM>
<NUMSTATES> 3
<STATE> 2
<MEAN> 13
 -2.769849e+000 -8.140926e-004 3.134851e-001 -2.719368e-001 -9.875321e-001 -2.992159e-001 -3.789172e-001 -1.585817e-001 -9.750697e-002 -8.348364e-003 -8.725543e-002 -2.735622e-002 -6.372336e-002
<VARIANCE> 13
 2.860710e+000 3.478377e-001 2.407569e-001 1.301424e-001 1.374940e-001 6.839930e-002 5.719658e-002 4.585853e-002 2.399640e-002 2.030664e-002 2.137934e-002 1.974580e-002 2.049582e-002
<GCONST> -9.470001e+000
<TRANSP> 3
 0.000000e+000 1.000000e+000 0.000000e+000
 0.000000e+000 7.982721e-001 2.017279e-001
 0.000000e+000 0.000000e+000 0.000000e+000
<ENDHMM>
~h "k"
<BEGINHMM>
<NUMSTATES> 3
<STATE> 2
<MEAN> 13
 -5.405580e+000 8.647237e-002 -1.535934e-001 -7.653448e-002 -1.420539e-001 -6.352714e-002 -5.692516e-002 3.609765e-002 1.633573e-002 2.794789e-002 4.145004e-003 8.673165e-003 -6.784740e-003
<VARIANCE> 13
 1.875647e+000 3.045627e-001 3.842210e-001 1.379425e-001 1.212626e-001 5.786113e-002 4.608737e-002 3.089252e-002 2.515140e-002 1.899863e-002 1.381207e-002 1.090420e-002 8.862061e-003
<GCONST> -1.229197e+001
<TRANSP> 3
 0.000000e+000 1.000000e+000 0.000000e+000
 0.000000e+000 8.667909e-001 1.332091e-001
 0.000000e+000 0.000000e+000 0.000000e+000
<ENDHMM>
~h "l"
<BEGINHMM>
<NUMSTATES> 3
<STATE> 2
<MEAN> 13
 -1.826200e+000 4.515532e-001 -6.467466e-001 -5.984968e-001 -6.331047e-001 -4.348791e-001 -4.726641e-001 3.602176e-003 -1.478155e-001 -1.444603e-001 -1.473987e-001 -1.090215e-001 -9.444760e-002
<VARIANCE> 13
 1.763670e+000 2.527853e-001 1.694535e-001 1.367355e-001 6.878046e-002 7.244350e-002 6.731557e-002 4.521881e-002 4.976169e-002 2.895712e-002 2.440154e-002 1.681131e-002 1.705006e-002
<GCONST> -1.018955e+001
<TRANSP> 3
 0.000000e+000 1.000000e+000 0.000000e+000
 0.000000e+000 8.382818e-001 1.617181e-001
 0.000000e+000 0.000000e+000 0.000000e+000
<ENDHMM>
~h "m"
<BEGINHMM>
<NUMSTATES> 3
<STATE> 2
<MEAN> 13
 -3.543663e+000 7.793666e-001 4.757557e-002 -2.707951e-001 -5.992666e-001 -2.846205e-001 -4.932717e-001 -2.718676e-001 -2.383500e-001 -2.019249e-001 -1.433749e-001 -1.465291e-001 -1.155973e-001
<VARIANCE> 13
 1.364749e+000 2.031171e-001 1.843191e-001 1.298283e-001 8.328251e-002 6.040474e-002 6.101034e-002 4.687815e-002 3.814321e-002 2.588123e-002 2.489165e-002 1.832488e-002 1.978839e-002
<GCONST> -1.080837e+001
<TRANSP> 3
 0.000000e+000 1.000000e+000 0.000000e+000
 0.000000e+000 8.663930e-001 1.336070e-001
 0.000000e+000 0.000000e+000 0.000000e+000
<ENDHMM>
~h "n"
<BEGINHMM>
<NUMSTATES> 3
<STATE> 2
<MEAN> 13
 -3.409288e+000 6.246719e-001 -4.743754e-002 -2.178264e-001 -5.912049e-001 -3.309700e-001 -3.621980e-001 -1.818327e-001 -3.115039e-001 -1.627000e-001 -1.629415e-001 -1.313724e-001 -1.055320e-001
<VARIANCE> 13
 1.853842e+000 2.350074e-001 2.670902e-001 1.030515e-001 8.692522e-002 5.001630e-002 8.236017e-002 4.526421e-002 3.839431e-002 2.944827e-002 2.747891e-002 1.762550e-002 2.038012e-002
<GCONST> -9.872083e+000
<TRANSP> 3
 0.000000e+000 1.000000e+000 0.000000e+000
 0.000000e+000 8.373368e-001 1.626632e-001
 0.000000e+000 0.000000e+000 0.000000e+000
<ENDHMM>
~h "o"
<BEGINHMM>
<NUMSTATES> 3
<STATE> 2
<MEAN> 13
 -2.774132e+000 8.278207e-001 -5.067130e-001 -7.707845e-001 -4.396908e-001 -3.018584e-001 -4.529741e-001 -1.182087e-001 -5.049667e-002 -7.423452e-002 -1.431837e-001 -1.037804e-001 -6.737377e-002
<VARIANCE> 13
 2.095176e+000 2.614865e-001 1.857337e-001 1.567194e-001 6.444157e-002 6.257857e-002 4.931529e-002 5.150662e-002 3.487385e-002 2.563643e-002 2.315338e-002 1.673202e-002 1.605465e-002
<GCONST> -1.074253e+001
<TRANSP> 3
 0.000000e+000 1.000000e+000 0.000000e+000
 0.000000e+000 8.573097e-001 1.426903e-001
 0.000000e+000 0.000000e+000 0.000000e+000
<ENDHMM>
~h "p"
<BEGINHMM>
<NUMSTATES> 3
<STATE> 2
<MEAN> 13
 -6.161389e+000 1.087149e-001 2.015376e-001 2.527505e-002 -1.064609e-001 -5.309566e-002 -1.054804e-002 3.201043e-002 2.068286e-002 3.365660e-002 1.158813e-002 1.390360e-002 1.837921e-004
<VARIANCE> 13
 1.049476e+000 1.971928e-001 1.443468e-001 6.128021e-002 7.311469e-002 3.754817e-002 3.278242e-002 2.343365e-002 1.796457e-002 1.517899e-002 1.184576e-002 9.672031e-003 8.408091e-003
<GCONST> -1.754008e+001
<TRANSP> 3
 0.000000e+000 1.000000e+000 0.000000e+000
 0.000000e+000 8.920701e-001 1.079299e-001
 0.000000e+000 0.000000e+000 0.000000e+000
<ENDHMM>
~h "r"
<BEGINHMM>
<NUMSTATES> 3
<STATE> 2
<MEAN> 13
 -1.713488e+000 2.221347e-001 -6.280706e-001 -3.278401e-001 -7.758834e-001 -5.177074e-001 -3.661701e-001 -1.549669e-002 -2.063051e-001 -1.134610e-001 -1.243521e-001 -1.097142e-001 -1.117608e-001
<VARIANCE> 13
 1.826374e+000 2.841562e-001 1.903239e-001 1.085102e-001 7.911034e-002 5.927664e-002 6.518473e-002 3.927141e-002 3.631864e-002 2.508940e-002 2.198996e-002 1.829768e-002 1.542440e-002
<GCONST> -1.096437e+001
<TRANSP> 3
 0.000000e+000 1.000000e+000 0.000000e+000
 0.000000e+000 8.566327e-001 1.433673e-001
 0.000000e+000 0.000000e+000 0.000000e+000
<ENDHMM>
~h "s"
<BEGINHMM>
<NUMSTATES> 3
<STATE> 2
<MEAN> 13
 -4.927953e+000 -6.439696e-001 9.282853e-002 -8.352444e-003 -1.912154e-001 -8.836603e-002 -2.695635e-003 1.152674e-002 -2.489819e-002 5.658049e-002 -2.497119e-002 1.325206e-002 -1.229268e-002
<VARIANCE> 13
 1.649462e+000 4.225501e-001 1.589885e-001 8.729108e-002 8.458433e-002 5.366095e-002 3.345228e-002 2.685232e-002 2.236458e-002 1.644394e-002 1.529429e-002 1.184598e-002 9.665926e-003
<GCONST> -1.431941e+001
<TRANSP> 3
 0.000000e+000 1.000000e+000 0.000000e+000
 0.000000e+000 8.926712e-001 1.073287e-001
 0.000000e+000 0.000000e+000 0.000000e+000
<ENDHMM>
~h "t"
<BEGINHMM>
<NUMSTATES> 3
<STATE> 2
<MEAN> 13
 -6.126375e+000 -5.585206e-002 2.042233e-001 3.070665e-002 -8.432198e-002 -2.273284e-002 1.981576e-002 4.956118e-002 3.083507e-002 5.550076e-002 1.346362e-002 2.076857e-002 1.398864e-003
<VARIANCE> 13
 1.191491e+000 2.230074e-001 1.297221e-001 6.326677e-002 7.211136e-002 3.691205e-002 2.761757e-002 2.003895e-002 1.573281e-002 1.350663e-002 1.090952e-002 9.188120e-003 7.881430e-003
<GCONST> -1.817163e+001
<TRANSP> 3
 0.000000e+000 1.000000e+000 0.000000e+000
 0.000000e+000 8.972119e-001 1.027881e-001
 0.000000e+000 0.000000e+000 0.000000e+000
<ENDHMM>
~h "u"
<BEGINHMM>
<NUMSTATES> 3
<STATE> 2
<MEAN> 13
 -5.070917e+000 6.650403e-001 1.746927e-001 -3.205295e-001 -3.035758e-001 -2.191981e-001 -2.730905e-001 -1.295587e-001 -5.758867e-002 3.142711e-003 -1.807712e-002 -2.887082e-002 -3.522651e-002
<VARIANCE> 13
 1.779719e+000 4.489063e-001 1.735003e-001 1.866601e-001 8.773670e-002 5.988528e-002 6.951890e-002 4.231549e-002 2.591210e-002 2.049572e-002 1.927209e-002 1.401837e-002 1.208358e-002
<GCONST> -1.101260e+001
<TRANSP> 3
 0.000000e+000 1.000000e+000 0.000000e+000
 0.000000e+000 8.596817e-001 1.403183e-001
 0.000000e+000 0.000000e+000 0.000000e+000
<ENDHMM>
~h "v"
<BEGINHMM>
<NUMSTATES> 3
<STATE> 2
<MEAN> 13
 -2.742139e+000 5.730739e-001 -2.779353e-001 -4.155208e-001 -6.765320e-001 -4.421770e-001 -4.387152e-001 -1.560477e-001 -1.569269e-001 -1.403174e-001 -1.524806e-001 -1.319878e-001 -1.448191e-001
<VARIANCE> 13
 2.086071e+000 2.544992e-001 2.651598e-001 1.545451e-001 1.044067e-001 6.279831e-002 4.245995e-002 4.596700e-002 3.233760e-002 2.230770e-002 2.208796e-002 1.853556e-002 2.036117e-002
<GCONST> -1.013104e+001
<TRANSP> 3
 0.000000e+000 1.000000e+000 0.000000e+000
 0.000000e+000 7.502438e-001 2.497561e-001
 0.000000e+000 0.000000e+000 0.000000e+000
<ENDHMM>
~h "x"
<BEGINHMM>
<NUMSTATES> 3
<STATE> 2
<MEAN> 13
 -4.583088e+000 -1.019172e-001 -5.120764e-001 -2.349956e-001 -1.785921e-001 -1.387914e-002 -7.582565e-002 5.580654e-003 -5.627819e-003 4.478832e-002 -3.263071e-002 -9.583286e-003 -1.702908e-002
<VARIANCE> 13
 1.344882e+000 3.891638e-001 3.130527e-001 1.769009e-001 1.141682e-001 6.234845e-002 4.481647e-002 3.378467e-002 2.595557e-002 1.899087e-002 1.528341e-002 1.194600e-002 9.682943e-003
<GCONST> -1.194752e+001
<TRANSP> 3
 0.000000e+000 1.000000e+000 0.000000e+000
 0.000000e+000 8.888548e-001 1.111452e-001
 0.000000e+000 0.000000e+000 0.000000e+000
<ENDHMM>
~h "y"
<BEGINHMM>
<NUMSTATES> 3
<STATE> 2
<MEAN> 13
 -3.119350e+000 1.027138e+000 -2.158936e-001 -8.173032e-001 -4.933732e-001 -3.371247e-001 -4.814683e-001 -2.317625e-001 -1.068929e-001 -3.432494e-002 -8.511405e-002 -9.789745e-002 -9.810136e-002
<VARIANCE> 13
 2.012707e+000 2.180123e-001 1.904189e-001 1.504519e-001 5.812278e-002 5.190361e-002 5.200287e-002 5.214064e-002 3.337846e-002 2.451660e-002 2.805026e-002 1.927646e-002 2.194645e-002
<GCONST> -1.064782e+001
<TRANSP> 3
 0.000000e+000 1.000000e+000 0.000000e+000
 0.000000e+000 9.200320e-001 7.996800e-002
 0.000000e+000 0.000000e+000 0.000000e+000
<ENDHMM>
~h "z"
<BEGINHMM>
<NUMSTATES> 3
<STATE> 2
<MEAN> 13
 -2.231215e+000 4.231306e-001 -3.888430e-001 -3.949487e-001 -6.659150e-001 -5.674061e-001 -3.902676e-001 -5.653362e-002 -2.909243e-001 -1.243072e-001 -1.427018e-001 -1.566717e-001 -1.462501e-001
<VARIANCE> 13
 1.917139e+000 2.337599e-001 2.347366e-001 1.014481e-001 7.789618e-002 5.091258e-002 6.621110e-002 3.937434e-002 3.217876e-002 2.512089e-002 2.934776e-002 1.487933e-002 1.920767e-002
<GCONST> -1.093657e+001
<TRANSP> 3
 0.000000e+000 1.000000e+000 0.000000e+000
 0.000000e+000 8.214349e-001 1.785652e-001
 0.000000e+000 0.000000e+000 0.000000e+000
<ENDHMM>
~h "_sil_"
<BEGINHMM>
<NUMSTATES> 3
<STATE> 2
<MEAN> 13
 -6.678970e+000 -8.198877e-002 2.754647e-001 1.392668e-001 3.711262e-002 5.047897e-002 6.623011e-002 4.094362e-002 2.994785e-002 4.116971e-002 9.040257e-003 1.800249e-002 7.861382e-003
<VARIANCE> 13
 8.867128e-001 1.065451e-001 6.959821e-002 4.502504e-002 5.894547e-002 2.614570e-002 2.586025e-002 1.658176e-002 1.344535e-002 1.127564e-002 9.987948e-003 8.656441e-003 7.494720e-003
<GCONST> -2.150590e+001
<TRANSP> 3
 0.000000e+000 1.000000e+000 0.000000e+000
 0.000000e+000 9.808384e-001 1.916166e-002
 0.000000e+000 0.000000e+000 0.000000e+000
<ENDHMM>
~h "_in_"
<BEGINHMM>
<NUMSTATES> 3
<STATE> 2
<MEAN> 13
 -5.612954e+000 -4.772568e-001 -2.431176e-003 1.904910e-001 -1.666043e-001 2.561033e-002 1.092556e-001 1.293960e-002 6.468655e-003 9.546331e-002 -1.981222e-002 3.663821e-002 8.908981e-003
<VARIANCE> 13
 1.402629e+000 3.248643e-001 1.409197e-001 7.485210e-002 8.599128e-002 4.528737e-002 3.548769e-002 2.921525e-002 1.922067e-002 1.614135e-002 1.345565e-002 1.041109e-002 8.902778e-003
<GCONST> -1.553804e+001
<TRANSP> 3
 0.000000e+000 1.000000e+000 0.000000e+000
 0.000000e+000 9.745684e-001 2.543166e-002
 0.000000e+000 0.000000e+000 0.000000e+000
<ENDHMM>
~h "_ls_"
<BEGINHMM>
<NUMSTATES> 3
<STATE> 2
<MEAN> 13
 -6.218465e+000 -3.108589e-001 1.132934e-001 3.026191e-001 -4.506640e-002 -2.120152e-002 1.601840e-001 4.144378e-002 1.876554e-004 1.077503e-001 5.321811e-003 2.026969e-002 2.608490e-002
<VARIANCE> 13
 6.431292e-001 1.219384e-001 9.890655e-002 5.545554e-002 4.661487e-002 2.711919e-002 2.871570e-002 1.839383e-002 1.204875e-002 1.424551e-002 9.580510e-003 7.343725e-003 6.371283e-003
<GCONST> -2.136640e+001
<TRANSP> 3
 0.000000e+000 1.000000e+000 0.000000e+000
 0.000000e+000 9.780248e-001 2.197514e-002
 0.000000e+000 0.000000e+000 0.000000e+000
<ENDHMM>
~h "_ns_"
<BEGINHMM>
<NUMSTATES> 3
<STATE> 2
<MEAN> 13
 -6.050768e+000 3.527186e-001 3.668545e-001 2.779388e-002 -1.246362e-001 -1.156079e-001 -1.094993e-001 -7.929658e-002 -5.775110e-002 -3.300553e-002 -2.515098e-002 -6.632144e-003 -1.136234e-002
<VARIANCE> 13
 1.210885e+000 3.610340e-001 1.740541e-001 8.618033e-002 8.265845e-002 5.702624e-002 4.788092e-002 3.088324e-002 2.159059e-002 1.673204e-002 1.416335e-002 1.079661e-002 8.592547e-003
<GCONST> -1.447700e+001
<TRANSP> 3
 0.000000e+000 1.000000e+000 0.000000e+000
 0.000000e+000 9.483634e-001 5.163653e-002
 0.000000e+000 0.000000e+000 0.000000e+000
<ENDHMM>
